1 100
</s> -0.0082994 0.0078322 -0.0062062 -0.0020398 0.0048702 0.0012078 0.0061913 0.00023425 0.0099017 0.0093322 -0.001479 0.00306 0.0092307 0.0071597 -0.0041195 -0.0017071 0.00029786 0.0057957 0.00088546 -0.0081274 -0.0013548 0.0068985 0.0054569 -0.0061628 0.0056073 -0.0063731 0.0015828 -0.0037174 -0.0017603 0.0098461 -0.0067216 -0.003303 -0.0084756 -0.0065095 -0.009254 -0.0006517 0.0034823 -0.0086659 -0.0022043 -0.006692 0.0098161 0.0074128 0.0034531 0.0017541 -0.0048997 0.0018609 -0.0045656 -0.0045904 -0.0080814 0.0026511 -0.0069745 0.0089772 -0.0091479 0.0047018 -0.00069006 -0.0055492 0.0014297 0.0020914 0.00396 0.0032937 -0.006527 0.0050299 0.0064983 0.0050619 -0.003619 0.00065102 -0.0070489 0.0058526 0.0082506 0.0058876 -0.0098118 0.00020106 -0.0040881 0.0011984 8.345e-05 -0.0037997 0.0096516 0.0092891 -0.0010287 -0.0039297 -0.0088758 0.0060384 0.0096762 -0.0089787 -0.0052039 -0.007906 0.00069594 0.00042814 -0.0034004 -0.0036472 0.0095572 0.0047017 0.0090723 -0.0090106 0.0014508 -0.0087831 0.0062326 0.0095837 -0.0054835 -0.0018726 
